<?xml version="1.0"?>
<opencv_storage>
<opencv_ml_boost>
  <format>3</format>
  <is_classifier>1</is_classifier>
  <var_all>5</var_all>
  <var_count>4</var_count>
  <ord_var_count>4</ord_var_count>
  <cat_var_count>1</cat_var_count>
  <training_params>
    <boosting_type>RealAdaboost</boosting_type>
    <use_surrogates>0</use_surrogates>
    <max_categories>10</max_categories>
    <regression_accuracy>9.9999997764825821e-03</regression_accuracy>
    <max_depth>1</max_depth>
    <min_sample_count>10</min_sample_count>
    <cross_validation_folds>0</cross_validation_folds>
    <weight_trimming_rate>0.</weight_trimming_rate></training_params>
  <global_var_idx>1</global_var_idx>
  <var_idx>
    0 1 2 3</var_idx>
  <var_type>
    0 0 0 0 1</var_type>
  <cat_ofs>
    0 0 0 0 0 0 0 0</cat_ofs>
  <class_labels>
    1 2</class_labels>
  <missing_subst>
    0. 0. 0. 0. 0.</missing_subst>
  <ntrees>100</ntrees>
  <trees>
    <_>
      <nodes>
        <_>
          <depth>0</depth>
          <value>2.4223807167465594e-01</value>
          <splits>
            <_><var>0</var>
              <quality>6.7553585767745972e-01</quality>
              <le>6.1844098567962646e-01</le></_></splits></_>
        <_>
          <depth>1</depth>
          <value>-8.4769943457952091e-01</value></_>
        <_>
          <depth>1</depth>
          <value>1.4997145677176464e+00</value></_></nodes></_>
    <_>
      <nodes>
        <_>
          <depth>0</depth>
          <value>-4.4799507082664686e-09</value>
          <splits>
            <_><var>1</var>
              <quality>1.9730347394943237e-01</quality>
              <le>8.4226496517658234e-02</le></_></splits></_>
        <_>
          <depth>1</depth>
          <value>1.1251762993431225e+00</value></_>
        <_>
          <depth>1</depth>
          <value>-2.4878540597290516e-01</value></_></nodes></_>
    <_>
      <nodes>
        <_>
          <depth>0</depth>
          <value>-1.4072802942786343e-09</value>
          <splits>
            <_><var>1</var>
              <quality>1.2096151709556580e-01</quality>
              <le>1.1961850523948669e-01</le></_></splits></_>
        <_>
          <depth>1</depth>
          <value>-1.7102442993427164e-01</value></_>
        <_>
          <depth>1</depth>
          <value>8.9562033517079909e-01</value></_></nodes></_>
    <_>
      <nodes>
        <_>
          <depth>0</depth>
          <value>-4.2382777467371626e-09</value>
          <splits>
            <_><var>0</var>
              <quality>1.0775107145309448e-01</quality>
              <le>7.1919548511505127e-01</le></_></splits></_>
        <_>
          <depth>1</depth>
          <value>-2.3196066666636861e-01</value></_>
        <_>
          <depth>1</depth>
          <value>5.1370204415814547e-01</value></_></nodes></_>
    <_>
      <nodes>
        <_>
          <depth>0</depth>
          <value>4.5326888703450440e-09</value>
          <splits>
            <_><var>0</var>
              <quality>6.1627008020877838e-02</quality>
              <le>1.2600644826889038e+00</le></_></splits></_>
        <_>
          <depth>1</depth>
          <value>1.2230988406019354e-01</value></_>
        <_>
          <depth>1</depth>
          <value>-5.5783539526791004e-01</value></_></nodes></_>
    <_>
      <nodes>
        <_>
          <depth>0</depth>
          <value>-7.0233752196758350e-10</value>
          <splits>
            <_><var>0</var>
              <quality>7.2802722454071045e-02</quality>
              <le>1.3566966056823730e+00</le></_></splits></_>
        <_>
          <depth>1</depth>
          <value>-7.2931756865341271e-02</value></_>
        <_>
          <depth>1</depth>
          <value>5.7564577324623896e+00</value></_></nodes></_>
    <_>
      <nodes>
        <_>
          <depth>0</depth>
          <value>2.3078503490410425e-04</value>
          <splits>
            <_><var>0</var>
              <quality>5.9182763099670410e-02</quality>
              <le>1.3091255426406860e+00</le></_></splits></_>
        <_>
          <depth>1</depth>
          <value>7.1889774653294256e-02</value></_>
        <_>
          <depth>1</depth>
          <value>-1.1788537833079722e+00</value></_></nodes></_>
    <_>
      <nodes>
        <_>
          <depth>0</depth>
          <value>2.8870239531519080e-11</value>
          <splits>
            <_><var>3</var>
              <quality>6.5151311457157135e-02</quality>
              <le>3.5000000000000000e+00</le></_></splits></_>
        <_>
          <depth>1</depth>
          <value>2.1069793704498560e-01</value></_>
        <_>
          <depth>1</depth>
          <value>-3.2473152271805145e-01</value></_></nodes></_>
    <_>
      <nodes>
        <_>
          <depth>0</depth>
          <value>4.1975343025079663e-09</value>
          <splits>
            <_><var>0</var>
              <quality>7.0050902664661407e-02</quality>
              <le>7.1919548511505127e-01</le></_></splits></_>
        <_>
          <depth>1</depth>
          <value>-1.3876089526595314e-01</value></_>
        <_>
          <depth>1</depth>
          <value>5.6012164091471617e-01</value></_></nodes></_>
    <_>
      <nodes>
        <_>
          <depth>0</depth>
          <value>-3.3677891144900592e-09</value>
          <splits>
            <_><var>1</var>
              <quality>7.9049408435821533e-02</quality>
              <le>7.8744001686573029e-02</le></_></splits></_>
        <_>
          <depth>1</depth>
          <value>1.1110971065479098e+00</value></_>
        <_>
          <depth>1</depth>
          <value>-9.8583310540005506e-02</value></_></nodes></_>
    <_>
      <nodes>
        <_>
          <depth>0</depth>
          <value>9.0384788460813872e-10</value>
          <splits>
            <_><var>0</var>
              <quality>5.1789294928312302e-02</quality>
              <le>2.5227248668670654e-01</le></_></splits></_>
        <_>
          <depth>1</depth>
          <value>1.4256845088922372e+00</value></_>
        <_>
          <depth>1</depth>
          <value>-5.8204983939277435e-02</value></_></nodes></_>
    <_>
      <nodes>
        <_>
          <depth>0</depth>
          <value>1.7389623071824271e-10</value>
          <splits>
            <_><var>1</var>
              <quality>3.9683394134044647e-02</quality>
              <le>1.6233199834823608e-01</le></_></splits></_>
        <_>
          <depth>1</depth>
          <value>-4.5699235201188716e-02</value></_>
        <_>
          <depth>1</depth>
          <value>1.3288359705224695e+00</value></_></nodes></_>
    <_>
      <nodes>
        <_>
          <depth>0</depth>
          <value>1.4825474181414696e-11</value>
          <splits>
            <_><var>1</var>
              <quality>5.4492749273777008e-02</quality>
              <le>9.2525497078895569e-02</le></_></splits></_>
        <_>
          <depth>1</depth>
          <value>2.9339927228584778e-01</value></_>
        <_>
          <depth>1</depth>
          <value>-1.9340392024622352e-01</value></_></nodes></_>
    <_>
      <nodes>
        <_>
          <depth>0</depth>
          <value>-4.2473500452821736e-09</value>
          <splits>
            <_><var>0</var>
              <quality>1.8581716343760490e-02</quality>
              <le>1.3353779315948486e+00</le></_></splits></_>
        <_>
          <depth>1</depth>
          <value>2.2340317581298664e-02</value></_>
        <_>
          <depth>1</depth>
          <value>-1.1942595117971639e+00</value></_></nodes></_>
    <_>
      <nodes>
        <_>
          <depth>0</depth>
          <value>-4.1359538033755937e-10</value>
          <splits>
            <_><var>0</var>
              <quality>2.7418546378612518e-02</quality>
              <le>7.1919548511505127e-01</le></_></splits></_>
        <_>
          <depth>1</depth>
          <value>-7.8726784645903727e-02</value></_>
        <_>
          <depth>1</depth>
          <value>3.6429768368078275e-01</value></_></nodes></_>
    <_>
      <nodes>
        <_>
          <depth>0</depth>
          <value>-1.7882440005227286e-09</value>
          <splits>
            <_><var>0</var>
              <quality>2.6728481054306030e-02</quality>
              <le>1.2600644826889038e+00</le></_></splits></_>
        <_>
          <depth>1</depth>
          <value>5.4831349660992700e-02</value></_>
        <_>
          <depth>1</depth>
          <value>-5.3337346057787161e-01</value></_></nodes></_>
    <_>
      <nodes>
        <_>
          <depth>0</depth>
          <value>2.4806081571709880e-09</value>
          <splits>
            <_><var>3</var>
              <quality>2.4511752650141716e-02</quality>
              <le>3.5000000000000000e+00</le></_></splits></_>
        <_>
          <depth>1</depth>
          <value>1.1993866983319784e-01</value></_>
        <_>
          <depth>1</depth>
          <value>-2.0830974998621510e-01</value></_></nodes></_>
    <_>
      <nodes>
        <_>
          <depth>0</depth>
          <value>6.1161098370628938e-10</value>
          <splits>
            <_><var>0</var>
              <quality>2.0072512328624725e-02</quality>
              <le>8.4861099720001221e-01</le></_></splits></_>
        <_>
          <depth>1</depth>
          <value>-5.9912826251070493e-02</value></_>
        <_>
          <depth>1</depth>
          <value>3.4893353166702989e-01</value></_></nodes></_>
    <_>
      <nodes>
        <_>
          <depth>0</depth>
          <value>2.5054074307929956e-09</value>
          <splits>
            <_><var>3</var>
              <quality>1.8614944070577621e-02</quality>
              <le>4.5000000000000000e+00</le></_></splits></_>
        <_>
          <depth>1</depth>
          <value>-2.3983097613979289e-02</value></_>
        <_>
          <depth>1</depth>
          <value>1.0360363708140343e+00</value></_></nodes></_>
    <_>
      <nodes>
        <_>
          <depth>0</depth>
          <value>-9.1889496096679742e-10</value>
          <splits>
            <_><var>2</var>
              <quality>1.5927931293845177e-02</quality>
              <le>9.5000000000000000e+00</le></_></splits></_>
        <_>
          <depth>1</depth>
          <value>2.0916752704467419e-02</value></_>
        <_>
          <depth>1</depth>
          <value>-1.0000201570190217e+00</value></_></nodes></_>
    <_>
      <nodes>
        <_>
          <depth>0</depth>
          <value>-2.2666313270798572e-12</value>
          <splits>
            <_><var>0</var>
              <quality>1.5721891075372696e-02</quality>
              <le>1.2600644826889038e+00</le></_></splits></_>
        <_>
          <depth>1</depth>
          <value>4.3619723259313632e-02</value></_>
        <_>
          <depth>1</depth>
          <value>-3.7764360925385981e-01</value></_></nodes></_>
    <_>
      <nodes>
        <_>
          <depth>0</depth>
          <value>1.6000789556590894e-09</value>
          <splits>
            <_><var>0</var>
              <quality>1.0966730304062366e-02</quality>
              <le>1.3323104381561279e+00</le></_></splits></_>
        <_>
          <depth>1</depth>
          <value>-1.9203169626935575e-02</value></_>
        <_>
          <depth>1</depth>
          <value>6.4924240821070867e-01</value></_></nodes></_>
    <_>
      <nodes>
        <_>
          <depth>0</depth>
          <value>-1.5567724889401426e-10</value>
          <splits>
            <_><var>2</var>
              <quality>9.8956739529967308e-03</quality>
              <le>5.5000000000000000e+00</le></_></splits></_>
        <_>
          <depth>1</depth>
          <value>-2.9652388675631487e-02</value></_>
        <_>
          <depth>1</depth>
          <value>3.4712172595764090e-01</value></_></nodes></_>
    <_>
      <nodes>
        <_>
          <depth>0</depth>
          <value>8.8832852106392704e-10</value>
          <splits>
            <_><var>0</var>
              <quality>1.1870645917952061e-02</quality>
              <le>4.6396100521087646e-01</le></_></splits></_>
        <_>
          <depth>1</depth>
          <value>-1.5806850339688025e-01</value></_>
        <_>
          <depth>1</depth>
          <value>7.5867761066818015e-02</value></_></nodes></_>
    <_>
      <nodes>
        <_>
          <depth>0</depth>
          <value>-9.6442626200429857e-10</value>
          <splits>
            <_><var>0</var>
              <quality>1.6726922243833542e-02</quality>
              <le>3.1049948930740356e-01</le></_></splits></_>
        <_>
          <depth>1</depth>
          <value>4.1945182862980090e-01</value></_>
        <_>
          <depth>1</depth>
          <value>-4.2214846709021640e-02</value></_></nodes></_>
    <_>
      <nodes>
        <_>
          <depth>0</depth>
          <value>8.9923668430597500e-10</value>
          <splits>
            <_><var>0</var>
              <quality>1.2493898160755634e-02</quality>
              <le>3.6869049072265625e-01</le></_></splits></_>
        <_>
          <depth>1</depth>
          <value>-2.8397046516437141e-01</value></_>
        <_>
          <depth>1</depth>
          <value>4.5204264177824797e-02</value></_></nodes></_>
    <_>
      <nodes>
        <_>
          <depth>0</depth>
          <value>2.2241692882387672e-09</value>
          <splits>
            <_><var>0</var>
              <quality>1.5357718802988529e-02</quality>
              <le>6.1569249629974365e-01</le></_></splits></_>
        <_>
          <depth>1</depth>
          <value>8.7990447458767967e-02</value></_>
        <_>
          <depth>1</depth>
          <value>-1.7680835456499641e-01</value></_></nodes></_>
    <_>
      <nodes>
        <_>
          <depth>0</depth>
          <value>6.0530336262185984e-10</value>
          <splits>
            <_><var>0</var>
              <quality>1.3146172277629375e-02</quality>
              <le>7.1919548511505127e-01</le></_></splits></_>
        <_>
          <depth>1</depth>
          <value>-5.1090849771637761e-02</value></_>
        <_>
          <depth>1</depth>
          <value>2.6346496960860039e-01</value></_></nodes></_>
    <_>
      <nodes>
        <_>
          <depth>0</depth>
          <value>3.3406430843242010e-09</value>
          <splits>
            <_><var>0</var>
              <quality>1.1086476035416126e-02</quality>
              <le>1.2600644826889038e+00</le></_></splits></_>
        <_>
          <depth>1</depth>
          <value>3.5694932544368521e-02</value></_>
        <_>
          <depth>1</depth>
          <value>-3.2134387328394576e-01</value></_></nodes></_>
    <_>
      <nodes>
        <_>
          <depth>0</depth>
          <value>1.2358962726823959e-09</value>
          <splits>
            <_><var>2</var>
              <quality>9.7714504227042198e-03</quality>
              <le>3.5000000000000000e+00</le></_></splits></_>
        <_>
          <depth>1</depth>
          <value>3.9157507441250822e-02</value></_>
        <_>
          <depth>1</depth>
          <value>-2.5506056041774727e-01</value></_></nodes></_>
    <_>
      <nodes>
        <_>
          <depth>0</depth>
          <value>2.7745228329341432e-10</value>
          <splits>
            <_><var>1</var>
              <quality>9.9245375022292137e-03</quality>
              <le>1.0258699953556061e-01</le></_></splits></_>
        <_>
          <depth>1</depth>
          <value>7.9297428027657837e-02</value></_>
        <_>
          <depth>1</depth>
          <value>-1.2608195144189346e-01</value></_></nodes></_>
    <_>
      <nodes>
        <_>
          <depth>0</depth>
          <value>9.7780028422847789e-10</value>
          <splits>
            <_><var>1</var>
              <quality>1.0125193744897842e-02</quality>
              <le>1.6959150135517120e-01</le></_></splits></_>
        <_>
          <depth>1</depth>
          <value>-1.0125538891089789e-02</value></_>
        <_>
          <depth>1</depth>
          <value>5.7564577324623896e+00</value></_></nodes></_>
    <_>
      <nodes>
        <_>
          <depth>0</depth>
          <value>3.2019822668460839e-05</value>
          <splits>
            <_><var>0</var>
              <quality>8.5098203271627426e-03</quality>
              <le>8.4861099720001221e-01</le></_></splits></_>
        <_>
          <depth>1</depth>
          <value>-3.4520212697687513e-02</value></_>
        <_>
          <depth>1</depth>
          <value>2.5159597120875099e-01</value></_></nodes></_>
    <_>
      <nodes>
        <_>
          <depth>0</depth>
          <value>-4.5068837571155454e-10</value>
          <splits>
            <_><var>0</var>
              <quality>9.9309477955102921e-03</quality>
              <le>3.1049948930740356e-01</le></_></splits></_>
        <_>
          <depth>1</depth>
          <value>3.0987185270651935e-01</value></_>
        <_>
          <depth>1</depth>
          <value>-3.3079890463428976e-02</value></_></nodes></_>
    <_>
      <nodes>
        <_>
          <depth>0</depth>
          <value>-1.5920625398935480e-09</value>
          <splits>
            <_><var>2</var>
              <quality>9.0104537084698677e-03</quality>
              <le>5.5000000000000000e+00</le></_></splits></_>
        <_>
          <depth>1</depth>
          <value>-2.9570851832225974e-02</value></_>
        <_>
          <depth>1</depth>
          <value>3.1479845627632319e-01</value></_></nodes></_>
    <_>
      <nodes>
        <_>
          <depth>0</depth>
          <value>6.6843686097056854e-10</value>
          <splits>
            <_><var>1</var>
              <quality>1.0020051151514053e-02</quality>
              <le>8.4488496184349060e-02</le></_></splits></_>
        <_>
          <depth>1</depth>
          <value>-2.2632060876115703e-01</value></_>
        <_>
          <depth>1</depth>
          <value>4.5057516010690253e-02</value></_></nodes></_>
    <_>
      <nodes>
        <_>
          <depth>0</depth>
          <value>-3.3260066933897883e-10</value>
          <splits>
            <_><var>1</var>
              <quality>1.1544344015419483e-02</quality>
              <le>7.2977498173713684e-02</le></_></splits></_>
        <_>
          <depth>1</depth>
          <value>5.4658978777341893e-01</value></_>
        <_>
          <depth>1</depth>
          <value>-2.3187432989730184e-02</value></_></nodes></_>
    <_>
      <nodes>
        <_>
          <depth>0</depth>
          <value>-6.8550254408801324e-10</value>
          <splits>
            <_><var>2</var>
              <quality>9.8855933174490929e-03</quality>
              <le>1.4500000000000000e+01</le></_></splits></_>
        <_>
          <depth>1</depth>
          <value>1.1158009040083594e-02</value></_>
        <_>
          <depth>1</depth>
          <value>-1.4030102395572801e+00</value></_></nodes></_>
    <_>
      <nodes>
        <_>
          <depth>0</depth>
          <value>3.6089131681767835e-11</value>
          <splits>
            <_><var>2</var>
              <quality>8.6364438757300377e-03</quality>
              <le>5.0000000000000000e-01</le></_></splits></_>
        <_>
          <depth>1</depth>
          <value>-5.7564577324601141e+00</value></_>
        <_>
          <depth>1</depth>
          <value>8.6366591063749484e-03</value></_></nodes></_>
    <_>
      <nodes>
        <_>
          <depth>0</depth>
          <value>-2.7311147088525506e-05</value>
          <splits>
            <_><var>1</var>
              <quality>1.2297427281737328e-02</quality>
              <le>6.9600500166416168e-02</le></_></splits></_>
        <_>
          <depth>1</depth>
          <value>1.3036160663992904e+00</value></_>
        <_>
          <depth>1</depth>
          <value>-1.4283218336957171e-02</value></_></nodes></_>
    <_>
      <nodes>
        <_>
          <depth>0</depth>
          <value>2.4497892597390832e-10</value>
          <splits>
            <_><var>0</var>
              <quality>8.0893561244010925e-03</quality>
              <le>1.3839499652385712e-01</le></_></splits></_>
        <_>
          <depth>1</depth>
          <value>-9.1956738143617778e-01</value></_>
        <_>
          <depth>1</depth>
          <value>1.1147543917754856e-02</value></_></nodes></_>
    <_>
      <nodes>
        <_>
          <depth>0</depth>
          <value>3.8720271418597323e-10</value>
          <splits>
            <_><var>1</var>
              <quality>8.1174876540899277e-03</quality>
              <le>1.4616599678993225e-01</le></_></splits></_>
        <_>
          <depth>1</depth>
          <value>-2.2543106688247799e-02</value></_>
        <_>
          <depth>1</depth>
          <value>3.7705633971585611e-01</value></_></nodes></_>
    <_>
      <nodes>
        <_>
          <depth>0</depth>
          <value>7.6927797459569064e-11</value>
          <splits>
            <_><var>1</var>
              <quality>1.1602687649428844e-02</quality>
              <le>1.1834800243377686e-01</le></_></splits></_>
        <_>
          <depth>1</depth>
          <value>5.0242301645541020e-02</value></_>
        <_>
          <depth>1</depth>
          <value>-2.3538177285846826e-01</value></_></nodes></_>
    <_>
      <nodes>
        <_>
          <depth>0</depth>
          <value>-5.2668852640309675e-10</value>
          <splits>
            <_><var>1</var>
              <quality>6.9993021897971630e-03</quality>
              <le>1.6640099883079529e-01</le></_></splits></_>
        <_>
          <depth>1</depth>
          <value>8.4813169030104208e-03</value></_>
        <_>
          <depth>1</depth>
          <value>-1.1731551446354207e+00</value></_></nodes></_>
    <_>
      <nodes>
        <_>
          <depth>0</depth>
          <value>-4.1585901390870034e-11</value>
          <splits>
            <_><var>1</var>
              <quality>9.1651910915970802e-03</quality>
              <le>1.4392599463462830e-01</le></_></splits></_>
        <_>
          <depth>1</depth>
          <value>-2.4387541995184763e-02</value></_>
        <_>
          <depth>1</depth>
          <value>3.9526352934053827e-01</value></_></nodes></_>
    <_>
      <nodes>
        <_>
          <depth>0</depth>
          <value>5.2129189826470148e-10</value>
          <splits>
            <_><var>1</var>
              <quality>6.4569017849862576e-03</quality>
              <le>7.5737498700618744e-02</le></_></splits></_>
        <_>
          <depth>1</depth>
          <value>-3.9022412113190214e-01</value></_>
        <_>
          <depth>1</depth>
          <value>1.7379874418336293e-02</value></_></nodes></_>
    <_>
      <nodes>
        <_>
          <depth>0</depth>
          <value>3.7840108809808844e-10</value>
          <splits>
            <_><var>1</var>
              <quality>7.8003192320466042e-03</quality>
              <le>8.9911997318267822e-02</le></_></splits></_>
        <_>
          <depth>1</depth>
          <value>1.2961661941638375e-01</value></_>
        <_>
          <depth>1</depth>
          <value>-6.0590609346667407e-02</value></_></nodes></_>
    <_>
      <nodes>
        <_>
          <depth>0</depth>
          <value>7.8361805871608062e-10</value>
          <splits>
            <_><var>3</var>
              <quality>6.7661833018064499e-03</quality>
              <le>3.5000000000000000e+00</le></_></splits></_>
        <_>
          <depth>1</depth>
          <value>5.8136221548080708e-02</value></_>
        <_>
          <depth>1</depth>
          <value>-1.1704768847422975e-01</value></_></nodes></_>
    <_>
      <nodes>
        <_>
          <depth>0</depth>
          <value>8.0981354889576549e-10</value>
          <splits>
            <_><var>0</var>
              <quality>4.6488298103213310e-03</quality>
              <le>1.1782349646091461e-01</le></_></splits></_>
        <_>
          <depth>1</depth>
          <value>-2.5161336888559127e+00</value></_>
        <_>
          <depth>1</depth>
          <value>4.7099215746211299e-03</value></_></nodes></_>
    <_>
      <nodes>
        <_>
          <depth>0</depth>
          <value>-1.2870632339336909e-10</value>
          <splits>
            <_><var>0</var>
              <quality>5.5072470568120480e-03</quality>
              <le>1.3680949807167053e-01</le></_></splits></_>
        <_>
          <depth>1</depth>
          <value>1.4187247348411434e+00</value></_>
        <_>
          <depth>1</depth>
          <value>-6.1926410094331752e-03</value></_></nodes></_>
    <_>
      <nodes>
        <_>
          <depth>0</depth>
          <value>-2.7035534929202346e-10</value>
          <splits>
            <_><var>0</var>
              <quality>4.7889021225273609e-03</quality>
              <le>6.7204296588897705e-01</le></_></splits></_>
        <_>
          <depth>1</depth>
          <value>-3.6557782844496019e-02</value></_>
        <_>
          <depth>1</depth>
          <value>1.3181188570337418e-01</value></_></nodes></_>
    <_>
      <nodes>
        <_>
          <depth>0</depth>
          <value>-6.0231952795005828e-10</value>
          <splits>
            <_><var>0</var>
              <quality>8.7107056751847267e-03</quality>
              <le>1.3146350383758545e+00</le></_></splits></_>
        <_>
          <depth>1</depth>
          <value>2.0283699989205022e-02</value></_>
        <_>
          <depth>1</depth>
          <value>-4.5928648560218727e-01</value></_></nodes></_>
    <_>
      <nodes>
        <_>
          <depth>0</depth>
          <value>-1.0543459449966276e-09</value>
          <splits>
            <_><var>1</var>
              <quality>4.0083839558064938e-03</quality>
              <le>7.2977498173713684e-02</le></_></splits></_>
        <_>
          <depth>1</depth>
          <value>4.5288677029682339e-01</value></_>
        <_>
          <depth>1</depth>
          <value>-9.4480233704487913e-03</value></_></nodes></_>
    <_>
      <nodes>
        <_>
          <depth>0</depth>
          <value>3.3859226522185674e-10</value>
          <splits>
            <_><var>2</var>
              <quality>7.0709856227040291e-03</quality>
              <le>9.5000000000000000e+00</le></_></splits></_>
        <_>
          <depth>1</depth>
          <value>9.8267749688697049e-03</value></_>
        <_>
          <depth>1</depth>
          <value>-9.0678666794440088e-01</value></_></nodes></_>
    <_>
      <nodes>
        <_>
          <depth>0</depth>
          <value>3.7283087714312365e-10</value>
          <splits>
            <_><var>2</var>
              <quality>4.5382012613117695e-03</quality>
              <le>5.5000000000000000e+00</le></_></splits></_>
        <_>
          <depth>1</depth>
          <value>-1.8886665676964200e-02</value></_>
        <_>
          <depth>1</depth>
          <value>2.4510793918620172e-01</value></_></nodes></_>
    <_>
      <nodes>
        <_>
          <depth>0</depth>
          <value>-3.6212505229795189e-10</value>
          <splits>
            <_><var>2</var>
              <quality>5.7584997266530991e-03</quality>
              <le>4.5000000000000000e+00</le></_></splits></_>
        <_>
          <depth>1</depth>
          <value>2.4640549237462797e-02</value></_>
        <_>
          <depth>1</depth>
          <value>-2.3814983688540298e-01</value></_></nodes></_>
    <_>
      <nodes>
        <_>
          <depth>0</depth>
          <value>2.1770762965423897e-10</value>
          <splits>
            <_><var>2</var>
              <quality>4.3101422488689423e-03</quality>
              <le>5.5000000000000000e+00</le></_></splits></_>
        <_>
          <depth>1</depth>
          <value>-1.8441403378564231e-02</value></_>
        <_>
          <depth>1</depth>
          <value>2.3814984196673436e-01</value></_></nodes></_>
    <_>
      <nodes>
        <_>
          <depth>0</depth>
          <value>2.9092794831405021e-10</value>
          <splits>
            <_><var>0</var>
              <quality>4.0256776846945286e-03</quality>
              <le>4.1243550181388855e-01</le></_></splits></_>
        <_>
          <depth>1</depth>
          <value>-1.2572690773615328e-01</value></_>
        <_>
          <depth>1</depth>
          <value>3.2198879742421742e-02</value></_></nodes></_>
    <_>
      <nodes>
        <_>
          <depth>0</depth>
          <value>4.4453551948620078e-11</value>
          <splits>
            <_><var>0</var>
              <quality>7.3459949344396591e-03</quality>
              <le>2.8416150808334351e-01</le></_></splits></_>
        <_>
          <depth>1</depth>
          <value>3.3014942246466095e-01</value></_>
        <_>
          <depth>1</depth>
          <value>-2.3057212118521332e-02</value></_></nodes></_>
    <_>
      <nodes>
        <_>
          <depth>0</depth>
          <value>-2.0673057714414804e-10</value>
          <splits>
            <_><var>0</var>
              <quality>4.5943292789161205e-03</quality>
              <le>1.3839499652385712e-01</le></_></splits></_>
        <_>
          <depth>1</depth>
          <value>-8.8324417754754214e-01</value></_>
        <_>
          <depth>1</depth>
          <value>6.4888824655695990e-03</value></_></nodes></_>
    <_>
      <nodes>
        <_>
          <depth>0</depth>
          <value>-1.3844131398739546e-10</value>
          <splits>
            <_><var>0</var>
              <quality>4.2954836972057819e-03</quality>
              <le>1.8310350179672241e-01</le></_></splits></_>
        <_>
          <depth>1</depth>
          <value>6.1336817562978674e-01</value></_>
        <_>
          <depth>1</depth>
          <value>-7.8602412318075389e-03</value></_></nodes></_>
    <_>
      <nodes>
        <_>
          <depth>0</depth>
          <value>4.8585557775580045e-10</value>
          <splits>
            <_><var>0</var>
              <quality>5.2576498128473759e-03</quality>
              <le>3.6869049072265625e-01</le></_></splits></_>
        <_>
          <depth>1</depth>
          <value>-1.9096148828575790e-01</value></_>
        <_>
          <depth>1</depth>
          <value>2.7873588465216967e-02</value></_></nodes></_>
    <_>
      <nodes>
        <_>
          <depth>0</depth>
          <value>6.2841376507394542e-10</value>
          <splits>
            <_><var>0</var>
              <quality>8.7878219783306122e-03</quality>
              <le>4.2287549376487732e-01</le></_></splits></_>
        <_>
          <depth>1</depth>
          <value>1.6823015490102899e-01</value></_>
        <_>
          <depth>1</depth>
          <value>-5.2777713041724982e-02</value></_></nodes></_>
    <_>
      <nodes>
        <_>
          <depth>0</depth>
          <value>-2.7941971037308605e-09</value>
          <splits>
            <_><var>0</var>
              <quality>8.1091355532407761e-03</quality>
              <le>4.5704850554466248e-01</le></_></splits></_>
        <_>
          <depth>1</depth>
          <value>-1.4267598786292685e-01</value></_>
        <_>
          <depth>1</depth>
          <value>5.7283732041029350e-02</value></_></nodes></_>
    <_>
      <nodes>
        <_>
          <depth>0</depth>
          <value>-2.6967997352474922e-09</value>
          <splits>
            <_><var>0</var>
              <quality>6.6442675888538361e-03</quality>
              <le>5.7321453094482422e-01</le></_></splits></_>
        <_>
          <depth>1</depth>
          <value>6.7102234931607510e-02</value></_>
        <_>
          <depth>1</depth>
          <value>-9.9492641173879015e-02</value></_></nodes></_>
    <_>
      <nodes>
        <_>
          <depth>0</depth>
          <value>-2.9063768698471883e-09</value>
          <splits>
            <_><var>0</var>
              <quality>7.6619912870228291e-03</quality>
              <le>5.3823697566986084e-01</le></_></splits></_>
        <_>
          <depth>1</depth>
          <value>-9.0415537015283182e-02</value></_>
        <_>
          <depth>1</depth>
          <value>8.5178173069691138e-02</value></_></nodes></_>
    <_>
      <nodes>
        <_>
          <depth>0</depth>
          <value>-3.5355896001187220e-10</value>
          <splits>
            <_><var>0</var>
              <quality>9.1639626771211624e-03</quality>
              <le>4.8404100537300110e-01</le></_></splits></_>
        <_>
          <depth>1</depth>
          <value>1.2370493790361849e-01</value></_>
        <_>
          <depth>1</depth>
          <value>-7.4594743439555994e-02</value></_></nodes></_>
    <_>
      <nodes>
        <_>
          <depth>0</depth>
          <value>-7.4927797356147956e-10</value>
          <splits>
            <_><var>0</var>
              <quality>5.9762331657111645e-03</quality>
              <le>5.3823697566986084e-01</le></_></splits></_>
        <_>
          <depth>1</depth>
          <value>-8.0437590217210211e-02</value></_>
        <_>
          <depth>1</depth>
          <value>7.4594742541051834e-02</value></_></nodes></_>
    <_>
      <nodes>
        <_>
          <depth>0</depth>
          <value>8.9338847351194321e-10</value>
          <splits>
            <_><var>0</var>
              <quality>5.5333785712718964e-03</quality>
              <le>5.0078350305557251e-01</le></_></splits></_>
        <_>
          <depth>1</depth>
          <value>8.7260028022534283e-02</value></_>
        <_>
          <depth>1</depth>
          <value>-6.3659240450357577e-02</value></_></nodes></_>
    <_>
      <nodes>
        <_>
          <depth>0</depth>
          <value>7.1736638799943683e-10</value>
          <splits>
            <_><var>0</var>
              <quality>5.3731473162770271e-03</quality>
              <le>4.6396100521087646e-01</le></_></splits></_>
        <_>
          <depth>1</depth>
          <value>-1.0976216893710949e-01</value></_>
        <_>
          <depth>1</depth>
          <value>4.9188697633588158e-02</value></_></nodes></_>
    <_>
      <nodes>
        <_>
          <depth>0</depth>
          <value>1.3831324955103338e-09</value>
          <splits>
            <_><var>0</var>
              <quality>6.8025323562324047e-03</quality>
              <le>4.2287549376487732e-01</le></_></splits></_>
        <_>
          <depth>1</depth>
          <value>1.4522406586933242e-01</value></_>
        <_>
          <depth>1</depth>
          <value>-4.7205499275266627e-02</value></_></nodes></_>
    <_>
      <nodes>
        <_>
          <depth>0</depth>
          <value>1.0909479974152618e-09</value>
          <splits>
            <_><var>0</var>
              <quality>5.9429174289107323e-03</quality>
              <le>4.1243550181388855e-01</le></_></splits></_>
        <_>
          <depth>1</depth>
          <value>-1.5394433241813985e-01</value></_>
        <_>
          <depth>1</depth>
          <value>3.8928459330551508e-02</value></_></nodes></_>
    <_>
      <nodes>
        <_>
          <depth>0</depth>
          <value>-1.6012522444757747e-09</value>
          <splits>
            <_><var>0</var>
              <quality>4.7445525415241718e-03</quality>
              <le>4.2287549376487732e-01</le></_></splits></_>
        <_>
          <depth>1</depth>
          <value>1.2255016786409882e-01</value></_>
        <_>
          <depth>1</depth>
          <value>-3.8928459300337226e-02</value></_></nodes></_>
    <_>
      <nodes>
        <_>
          <depth>0</depth>
          <value>9.5514640549939516e-10</value>
          <splits>
            <_><var>0</var>
              <quality>5.3441044874489307e-03</quality>
              <le>4.5704850554466248e-01</le></_></splits></_>
        <_>
          <depth>1</depth>
          <value>-1.1638872348431961e-01</value></_>
        <_>
          <depth>1</depth>
          <value>4.6155890338295404e-02</value></_></nodes></_>
    <_>
      <nodes>
        <_>
          <depth>0</depth>
          <value>1.1892518067281243e-09</value>
          <splits>
            <_><var>1</var>
              <quality>4.8818942159414291e-03</quality>
              <le>7.2977498173713684e-02</le></_></splits></_>
        <_>
          <depth>1</depth>
          <value>5.9176680088348643e-01</value></_>
        <_>
          <depth>1</depth>
          <value>-9.1911741022547323e-03</value></_></nodes></_>
    <_>
      <nodes>
        <_>
          <depth>0</depth>
          <value>3.3745561889001391e-10</value>
          <splits>
            <_><var>0</var>
              <quality>3.9582764729857445e-03</quality>
              <le>4.2287549376487732e-01</le></_></splits></_>
        <_>
          <depth>1</depth>
          <value>1.1074286846252335e-01</value></_>
        <_>
          <depth>1</depth>
          <value>-3.5904365801813928e-02</value></_></nodes></_>
    <_>
      <nodes>
        <_>
          <depth>0</depth>
          <value>9.0418517036241011e-10</value>
          <splits>
            <_><var>0</var>
              <quality>5.1442319527268410e-03</quality>
              <le>1.2852809429168701e+00</le></_></splits></_>
        <_>
          <depth>1</depth>
          <value>-1.8951961333627067e-02</value></_>
        <_>
          <depth>1</depth>
          <value>2.7844773295235981e-01</value></_></nodes></_>
    <_>
      <nodes>
        <_>
          <depth>0</depth>
          <value>-4.8950687971486025e-10</value>
          <splits>
            <_><var>0</var>
              <quality>5.1615186966955662e-03</quality>
              <le>1.2600644826889038e+00</le></_></splits></_>
        <_>
          <depth>1</depth>
          <value>2.4272979535419278e-02</value></_>
        <_>
          <depth>1</depth>
          <value>-2.1598334264108204e-01</value></_></nodes></_>
    <_>
      <nodes>
        <_>
          <depth>0</depth>
          <value>-2.2201090970552278e-10</value>
          <splits>
            <_><var>0</var>
              <quality>6.9219083525240421e-03</quality>
              <le>8.4861099720001221e-01</le></_></splits></_>
        <_>
          <depth>1</depth>
          <value>-3.1907151489988031e-02</value></_>
        <_>
          <depth>1</depth>
          <value>2.2051903413182081e-01</value></_></nodes></_>
    <_>
      <nodes>
        <_>
          <depth>0</depth>
          <value>5.4087356786303120e-10</value>
          <splits>
            <_><var>0</var>
              <quality>5.4162647575139999e-03</quality>
              <le>1.2600644826889038e+00</le></_></splits></_>
        <_>
          <depth>1</depth>
          <value>2.4963468392451307e-02</value></_>
        <_>
          <depth>1</depth>
          <value>-2.2051903259107178e-01</value></_></nodes></_>
    <_>
      <nodes>
        <_>
          <depth>0</depth>
          <value>4.2092951328999033e-10</value>
          <splits>
            <_><var>0</var>
              <quality>4.6360972337424755e-03</quality>
              <le>6.7204296588897705e-01</le></_></splits></_>
        <_>
          <depth>1</depth>
          <value>-3.6009674800335192e-02</value></_>
        <_>
          <depth>1</depth>
          <value>1.2952096439899174e-01</value></_></nodes></_>
    <_>
      <nodes>
        <_>
          <depth>0</depth>
          <value>-2.0821690526251563e-09</value>
          <splits>
            <_><var>0</var>
              <quality>7.4826837517321110e-03</quality>
              <le>6.2540298700332642e-01</le></_></splits></_>
        <_>
          <depth>1</depth>
          <value>5.8851111751540133e-02</value></_>
        <_>
          <depth>1</depth>
          <value>-1.2798704649335385e-01</value></_></nodes></_>
    <_>
      <nodes>
        <_>
          <depth>0</depth>
          <value>-1.3425581220344471e-09</value>
          <splits>
            <_><var>0</var>
              <quality>6.4389710314571857e-03</quality>
              <le>5.3823697566986084e-01</le></_></splits></_>
        <_>
          <depth>1</depth>
          <value>-8.3595965920396378e-02</value></_>
        <_>
          <depth>1</depth>
          <value>7.7358186798543824e-02</value></_></nodes></_>
    <_>
      <nodes>
        <_>
          <depth>0</depth>
          <value>1.6632069027670860e-09</value>
          <splits>
            <_><var>0</var>
              <quality>4.2824205011129379e-03</quality>
              <le>5.0078350305557251e-01</le></_></splits></_>
        <_>
          <depth>1</depth>
          <value>7.6347651300936278e-02</value></_>
        <_>
          <depth>1</depth>
          <value>-5.6259282521632627e-02</value></_></nodes></_>
    <_>
      <nodes>
        <_>
          <depth>0</depth>
          <value>5.9581761711085609e-10</value>
          <splits>
            <_><var>0</var>
              <quality>5.1822131499648094e-03</quality>
              <le>4.5704850554466248e-01</le></_></splits></_>
        <_>
          <depth>1</depth>
          <value>-1.1286988447943502e-01</value></_>
        <_>
          <depth>1</depth>
          <value>4.6140682229626882e-02</value></_></nodes></_>
    <_>
      <nodes>
        <_>
          <depth>0</depth>
          <value>-7.8427880917833676e-10</value>
          <splits>
            <_><var>1</var>
              <quality>3.6413406487554312e-03</quality>
              <le>7.5737498700618744e-02</le></_></splits></_>
        <_>
          <depth>1</depth>
          <value>-3.1847937318084113e-01</value></_>
        <_>
          <depth>1</depth>
          <value>1.1818045445393322e-02</value></_></nodes></_>
    <_>
      <nodes>
        <_>
          <depth>0</depth>
          <value>-7.8807899157530145e-10</value>
          <splits>
            <_><var>0</var>
              <quality>4.1784015484154224e-03</quality>
              <le>4.7427201271057129e-01</le></_></splits></_>
        <_>
          <depth>1</depth>
          <value>8.8054058730983029e-02</value></_>
        <_>
          <depth>1</depth>
          <value>-4.7611207143865214e-02</value></_></nodes></_>
    <_>
      <nodes>
        <_>
          <depth>0</depth>
          <value>-1.0161489437999173e-09</value>
          <splits>
            <_><var>1</var>
              <quality>3.5773653071373701e-03</quality>
              <le>9.4484001398086548e-02</le></_></splits></_>
        <_>
          <depth>1</depth>
          <value>6.9356292176172174e-02</value></_>
        <_>
          <depth>1</depth>
          <value>-5.1708248756746657e-02</value></_></nodes></_>
    <_>
      <nodes>
        <_>
          <depth>0</depth>
          <value>-8.4526252735310366e-10</value>
          <splits>
            <_><var>1</var>
              <quality>4.4670235365629196e-03</quality>
              <le>1.0078100115060806e-01</le></_></splits></_>
        <_>
          <depth>1</depth>
          <value>-6.0513870657780397e-02</value></_>
        <_>
          <depth>1</depth>
          <value>7.4043276200632127e-02</value></_></nodes></_>
    <_>
      <nodes>
        <_>
          <depth>0</depth>
          <value>7.0882189002168837e-11</value>
          <splits>
            <_><var>0</var>
              <quality>3.2849321141839027e-03</quality>
              <le>4.6396100521087646e-01</le></_></splits></_>
        <_>
          <depth>1</depth>
          <value>-8.7081681533286548e-02</value></_>
        <_>
          <depth>1</depth>
          <value>3.7835773086778664e-02</value></_></nodes></_>
    <_>
      <nodes>
        <_>
          <depth>0</depth>
          <value>-1.0010294825308635e-09</value>
          <splits>
            <_><var>0</var>
              <quality>3.5575984511524439e-03</quality>
              <le>4.2287549376487732e-01</le></_></splits></_>
        <_>
          <depth>1</depth>
          <value>1.0465021134220240e-01</value></_>
        <_>
          <depth>1</depth>
          <value>-3.4132398973760421e-02</value></_></nodes></_>
    <_>
      <nodes>
        <_>
          <depth>0</depth>
          <value>-9.6305785661265916e-10</value>
          <splits>
            <_><var>0</var>
              <quality>3.9638681337237358e-03</quality>
              <le>4.1243550181388855e-01</le></_></splits></_>
        <_>
          <depth>1</depth>
          <value>-1.2374342292823103e-01</value></_>
        <_>
          <depth>1</depth>
          <value>3.2207425396823385e-02</value></_></nodes></_>
    <_>
      <nodes>
        <_>
          <depth>0</depth>
          <value>-3.5120351084116742e-10</value>
          <splits>
            <_><var>0</var>
              <quality>4.2170728556811810e-03</quality>
              <le>3.1567949056625366e-01</le></_></splits></_>
        <_>
          <depth>1</depth>
          <value>1.9211753971113793e-01</value></_>
        <_>
          <depth>1</depth>
          <value>-2.2223537572298193e-02</value></_></nodes></_>
    <_>
      <nodes>
        <_>
          <depth>0</depth>
          <value>-4.5689174667940261e-11</value>
          <splits>
            <_><var>0</var>
              <quality>4.4238921254873276e-03</quality>
              <le>3.6869049072265625e-01</le></_></splits></_>
        <_>
          <depth>1</depth>
          <value>-1.7126564060307614e-01</value></_>
        <_>
          <depth>1</depth>
          <value>2.6088564870240964e-02</value></_></nodes></_>
    <_>
      <nodes>
        <_>
          <depth>0</depth>
          <value>1.9454393647800899e-10</value>
          <splits>
            <_><var>1</var>
              <quality>4.2593926191329956e-03</quality>
              <le>8.7095007300376892e-02</le></_></splits></_>
        <_>
          <depth>1</depth>
          <value>1.3578730140148548e-01</value></_>
        <_>
          <depth>1</depth>
          <value>-3.1571161633411365e-02</value></_></nodes></_>
    <_>
      <nodes>
        <_>
          <depth>0</depth>
          <value>-1.7951520857624569e-09</value>
          <splits>
            <_><var>1</var>
              <quality>3.9983387105166912e-03</quality>
              <le>1.4616599678993225e-01</le></_></splits></_>
        <_>
          <depth>1</depth>
          <value>-1.4333384437783533e-02</value></_>
        <_>
          <depth>1</depth>
          <value>2.8656697822261984e-01</value></_></nodes></_>
    <_>
      <nodes>
        <_>
          <depth>0</depth>
          <value>-5.2768456274008350e-11</value>
          <splits>
            <_><var>1</var>
              <quality>5.5640288628637791e-03</quality>
              <le>1.2844198942184448e-01</le></_></splits></_>
        <_>
          <depth>1</depth>
          <value>2.6780458918261644e-02</value></_>
        <_>
          <depth>1</depth>
          <value>-2.1088577143995890e-01</value></_></nodes></_>
    <_>
      <nodes>
        <_>
          <depth>0</depth>
          <value>1.4091912061823613e-09</value>
          <splits>
            <_><var>3</var>
              <quality>4.3439790606498718e-03</quality>
              <le>1.5000000000000000e+00</le></_></splits></_>
        <_>
          <depth>1</depth>
          <value>2.8558953094566925e-01</value></_>
        <_>
          <depth>1</depth>
          <value>-1.5623138587144956e-02</value></_></nodes></_>
    <_>
      <nodes>
        <_>
          <depth>0</depth>
          <value>4.7141934778041893e-10</value>
          <splits>
            <_><var>0</var>
              <quality>3.4762832801789045e-03</quality>
              <le>3.1567949056625366e-01</le></_></splits></_>
        <_>
          <depth>1</depth>
          <value>1.7222555397336137e-01</value></_>
        <_>
          <depth>1</depth>
          <value>-2.0386478696683721e-02</value></_></nodes></_>
    <_>
      <nodes>
        <_>
          <depth>0</depth>
          <value>-2.4580404384624408e-10</value>
          <splits>
            <_><var>0</var>
              <quality>3.5879528149962425e-03</quality>
              <le>1.3323104381561279e+00</le></_></splits></_>
        <_>
          <depth>1</depth>
          <value>-1.0810397317518584e-02</value></_>
        <_>
          <depth>1</depth>
          <value>3.4497461250992778e-01</value></_></nodes></_></trees></opencv_ml_boost>
</opencv_storage>
