<?xml version="1.0"?>
<opencv_storage>
<opencv_ml_boost>
  <format>3</format>
  <is_classifier>1</is_classifier>
  <var_all>8</var_all>
  <var_count>7</var_count>
  <ord_var_count>7</ord_var_count>
  <cat_var_count>1</cat_var_count>
  <training_params>
    <boosting_type>RealAdaboost</boosting_type>
    <use_surrogates>0</use_surrogates>
    <max_categories>10</max_categories>
    <regression_accuracy>9.9999997764825821e-03</regression_accuracy>
    <max_depth>1</max_depth>
    <min_sample_count>10</min_sample_count>
    <cross_validation_folds>0</cross_validation_folds>
    <weight_trimming_rate>0.</weight_trimming_rate></training_params>
  <global_var_idx>1</global_var_idx>
  <var_idx>
    0 1 2 3 4 5 6</var_idx>
  <var_type>
    0 0 0 0 0 0 0 1</var_type>
  <cat_ofs>
    0 0 0 0 0 0 0 0 0 0 0 0 0 0</cat_ofs>
  <class_labels>
    1 2</class_labels>
  <missing_subst>
    0. 0. 0. 0. 0. 0. 0. 0.</missing_subst>
  <ntrees>100</ntrees>
  <trees>
    <_>
      <nodes>
        <_>
          <depth>0</depth>
          <value>2.5309767769090391e-01</value>
          <splits>
            <_><var>6</var>
              <quality>7.0220851898193359e-01</quality>
              <le>6.5000000000000000e+00</le></_></splits></_>
        <_>
          <depth>1</depth>
          <value>-7.7162112278408745e-01</value></_>
        <_>
          <depth>1</depth>
          <value>1.9889053729830641e+00</value></_></nodes></_>
    <_>
      <nodes>
        <_>
          <depth>0</depth>
          <value>-2.7633282537507180e-08</value>
          <splits>
            <_><var>0</var>
              <quality>5.7446306943893433e-01</quality>
              <le>6.4187049865722656e-01</le></_></splits></_>
        <_>
          <depth>1</depth>
          <value>-7.8797167052146166e-01</value></_>
        <_>
          <depth>1</depth>
          <value>1.3498978734304279e+00</value></_></nodes></_>
    <_>
      <nodes>
        <_>
          <depth>0</depth>
          <value>7.1846013066714141e-09</value>
          <splits>
            <_><var>1</var>
              <quality>3.2931816577911377e-01</quality>
              <le>1.2203900516033173e-01</le></_></splits></_>
        <_>
          <depth>1</depth>
          <value>-4.0798590442035154e-01</value></_>
        <_>
          <depth>1</depth>
          <value>1.2614985660328120e+00</value></_></nodes></_>
    <_>
      <nodes>
        <_>
          <depth>0</depth>
          <value>-7.6986435042335158e-09</value>
          <splits>
            <_><var>6</var>
              <quality>1.8993626534938812e-01</quality>
              <le>8.5000000000000000e+00</le></_></splits></_>
        <_>
          <depth>1</depth>
          <value>-2.1336094511930973e-01</value></_>
        <_>
          <depth>1</depth>
          <value>1.4919261454448596e+00</value></_></nodes></_>
    <_>
      <nodes>
        <_>
          <depth>0</depth>
          <value>3.2925995252769520e-10</value>
          <splits>
            <_><var>4</var>
              <quality>1.5926887094974518e-01</quality>
              <le>1.8927448987960815e-01</le></_></splits></_>
        <_>
          <depth>1</depth>
          <value>1.6575936886724821e-01</value></_>
        <_>
          <depth>1</depth>
          <value>-2.0860369884764789e+00</value></_></nodes></_>
    <_>
      <nodes>
        <_>
          <depth>0</depth>
          <value>-3.5671367653713248e-09</value>
          <splits>
            <_><var>4</var>
              <quality>1.2277166545391083e-01</quality>
              <le>4.7535002231597900e-03</le></_></splits></_>
        <_>
          <depth>1</depth>
          <value>-2.6981529638653279e-01</value></_>
        <_>
          <depth>1</depth>
          <value>5.0496107638601206e-01</value></_></nodes></_>
    <_>
      <nodes>
        <_>
          <depth>0</depth>
          <value>7.2253136754716090e-10</value>
          <splits>
            <_><var>1</var>
              <quality>1.3401962816715240e-01</quality>
              <le>1.4616599678993225e-01</le></_></splits></_>
        <_>
          <depth>1</depth>
          <value>-1.6581399994988949e-01</value></_>
        <_>
          <depth>1</depth>
          <value>1.1436714235316205e+00</value></_></nodes></_>
    <_>
      <nodes>
        <_>
          <depth>0</depth>
          <value>8.9326967964852060e-10</value>
          <splits>
            <_><var>5</var>
              <quality>1.2141598761081696e-01</quality>
              <le>2.5951480865478516e+00</le></_></splits></_>
        <_>
          <depth>1</depth>
          <value>-1.2201795507026306e-01</value></_>
        <_>
          <depth>1</depth>
          <value>5.7564577324623896e+00</value></_></nodes></_>
    <_>
      <nodes>
        <_>
          <depth>0</depth>
          <value>3.8666738448235604e-04</value>
          <splits>
            <_><var>0</var>
              <quality>9.7329609096050262e-02</quality>
              <le>5.6435453891754150e-01</le></_></splits></_>
        <_>
          <depth>1</depth>
          <value>-3.1511485031165731e-01</value></_>
        <_>
          <depth>1</depth>
          <value>3.3054335150928682e-01</value></_></nodes></_>
    <_>
      <nodes>
        <_>
          <depth>0</depth>
          <value>8.7758698426368428e-09</value>
          <splits>
            <_><var>5</var>
              <quality>1.0788960754871368e-01</quality>
              <le>2.0552148818969727e+00</le></_></splits></_>
        <_>
          <depth>1</depth>
          <value>2.0352576629218952e-01</value></_>
        <_>
          <depth>1</depth>
          <value>-6.0049578148015004e-01</value></_></nodes></_>
    <_>
      <nodes>
        <_>
          <depth>0</depth>
          <value>-6.6115287015972579e-09</value>
          <splits>
            <_><var>6</var>
              <quality>6.2832996249198914e-02</quality>
              <le>4.5000000000000000e+00</le></_></splits></_>
        <_>
          <depth>1</depth>
          <value>-2.4476959675958754e-01</value></_>
        <_>
          <depth>1</depth>
          <value>2.6804932292464539e-01</value></_></nodes></_>
    <_>
      <nodes>
        <_>
          <depth>0</depth>
          <value>1.2789103108231416e-10</value>
          <splits>
            <_><var>3</var>
              <quality>7.0592135190963745e-02</quality>
              <le>3.5000000000000000e+00</le></_></splits></_>
        <_>
          <depth>1</depth>
          <value>1.5342685643186019e-01</value></_>
        <_>
          <depth>1</depth>
          <value>-5.0202400013043680e-01</value></_></nodes></_>
    <_>
      <nodes>
        <_>
          <depth>0</depth>
          <value>-6.9792105476944041e-10</value>
          <splits>
            <_><var>6</var>
              <quality>6.3573919236660004e-02</quality>
              <le>1.0500000000000000e+01</le></_></splits></_>
        <_>
          <depth>1</depth>
          <value>-6.3659777458109398e-02</value></_>
        <_>
          <depth>1</depth>
          <value>5.7564577324623896e+00</value></_></nodes></_>
    <_>
      <nodes>
        <_>
          <depth>0</depth>
          <value>2.0140857906317432e-04</value>
          <splits>
            <_><var>6</var>
              <quality>5.0963994115591049e-02</quality>
              <le>6.5000000000000000e+00</le></_></splits></_>
        <_>
          <depth>1</depth>
          <value>1.0934727321238182e-01</value></_>
        <_>
          <depth>1</depth>
          <value>-5.0826968277283746e-01</value></_></nodes></_>
    <_>
      <nodes>
        <_>
          <depth>0</depth>
          <value>-5.2225810615785279e-09</value>
          <splits>
            <_><var>0</var>
              <quality>4.4314548373222351e-02</quality>
              <le>1.3566966056823730e+00</le></_></splits></_>
        <_>
          <depth>1</depth>
          <value>-4.4343593930009181e-02</value></_>
        <_>
          <depth>1</depth>
          <value>5.7564577324623896e+00</value></_></nodes></_>
    <_>
      <nodes>
        <_>
          <depth>0</depth>
          <value>1.4025424937837361e-04</value>
          <splits>
            <_><var>0</var>
              <quality>1.0287567973136902e-01</quality>
              <le>1.2600644826889038e+00</le></_></splits></_>
        <_>
          <depth>1</depth>
          <value>1.1781000120354274e-01</value></_>
        <_>
          <depth>1</depth>
          <value>-1.3677574639861703e+00</value></_></nodes></_>
    <_>
      <nodes>
        <_>
          <depth>0</depth>
          <value>-3.5907541513651676e-09</value>
          <splits>
            <_><var>0</var>
              <quality>1.4743453264236450e-01</quality>
              <le>7.1919548511505127e-01</le></_></splits></_>
        <_>
          <depth>1</depth>
          <value>-2.0749439771808983e-01</value></_>
        <_>
          <depth>1</depth>
          <value>9.0913167275575024e-01</value></_></nodes></_>
    <_>
      <nodes>
        <_>
          <depth>0</depth>
          <value>5.1615889313797482e-10</value>
          <splits>
            <_><var>0</var>
              <quality>6.8441018462181091e-02</quality>
              <le>1.3091255426406860e+00</le></_></splits></_>
        <_>
          <depth>1</depth>
          <value>7.2865224412730814e-02</value></_>
        <_>
          <depth>1</depth>
          <value>-1.7462226965512648e+00</value></_></nodes></_>
    <_>
      <nodes>
        <_>
          <depth>0</depth>
          <value>3.1730396087385078e-11</value>
          <splits>
            <_><var>4</var>
              <quality>6.3357800245285034e-02</quality>
              <le>1.3865050673484802e-01</le></_></splits></_>
        <_>
          <depth>1</depth>
          <value>9.6247667275590046e-02</value></_>
        <_>
          <depth>1</depth>
          <value>-7.9336345723439772e-01</value></_></nodes></_>
    <_>
      <nodes>
        <_>
          <depth>0</depth>
          <value>1.0030252174318100e-09</value>
          <splits>
            <_><var>1</var>
              <quality>5.3413856774568558e-02</quality>
              <le>1.6959150135517120e-01</le></_></splits></_>
        <_>
          <depth>1</depth>
          <value>-5.3464739604672615e-02</value></_>
        <_>
          <depth>1</depth>
          <value>5.7564577324623896e+00</value></_></nodes></_>
    <_>
      <nodes>
        <_>
          <depth>0</depth>
          <value>1.6912405129246134e-04</value>
          <splits>
            <_><var>4</var>
              <quality>5.4819066077470779e-02</quality>
              <le>6.8380003795027733e-03</le></_></splits></_>
        <_>
          <depth>1</depth>
          <value>-1.8927127410708872e-01</value></_>
        <_>
          <depth>1</depth>
          <value>3.0183040312550596e-01</value></_></nodes></_>
    <_>
      <nodes>
        <_>
          <depth>0</depth>
          <value>-4.7783790486267171e-09</value>
          <splits>
            <_><var>0</var>
              <quality>6.6426359117031097e-02</quality>
              <le>3.1014949083328247e-01</le></_></splits></_>
        <_>
          <depth>1</depth>
          <value>5.1156592401892298e-01</value></_>
        <_>
          <depth>1</depth>
          <value>-1.4192877779756377e-01</value></_></nodes></_>
    <_>
      <nodes>
        <_>
          <depth>0</depth>
          <value>-4.8273790543829085e-10</value>
          <splits>
            <_><var>5</var>
              <quality>9.6771471202373505e-02</quality>
              <le>1.3076024055480957e+00</le></_></splits></_>
        <_>
          <depth>1</depth>
          <value>-4.3308912698478869e-01</value></_>
        <_>
          <depth>1</depth>
          <value>2.4185095991344949e-01</value></_></nodes></_>
    <_>
      <nodes>
        <_>
          <depth>0</depth>
          <value>5.2733734878267033e-09</value>
          <splits>
            <_><var>5</var>
              <quality>6.3052698969841003e-02</quality>
              <le>1.7056939601898193e+00</le></_></splits></_>
        <_>
          <depth>1</depth>
          <value>1.7468336576200316e-01</value></_>
        <_>
          <depth>1</depth>
          <value>-3.8220196801163442e-01</value></_></nodes></_>
    <_>
      <nodes>
        <_>
          <depth>0</depth>
          <value>2.9268598570153237e-09</value>
          <splits>
            <_><var>0</var>
              <quality>6.9001495838165283e-02</quality>
              <le>7.1919548511505127e-01</le></_></splits></_>
        <_>
          <depth>1</depth>
          <value>-1.0781346327672509e-01</value></_>
        <_>
          <depth>1</depth>
          <value>7.6239584042920738e-01</value></_></nodes></_>
    <_>
      <nodes>
        <_>
          <depth>0</depth>
          <value>-2.6788877854499598e-09</value>
          <splits>
            <_><var>0</var>
              <quality>3.5808354616165161e-02</quality>
              <le>1.2600644826889038e+00</le></_></splits></_>
        <_>
          <depth>1</depth>
          <value>4.9251608903958792e-02</value></_>
        <_>
          <depth>1</depth>
          <value>-9.2368749164462827e-01</value></_></nodes></_>
    <_>
      <nodes>
        <_>
          <depth>0</depth>
          <value>1.4917296264856566e-09</value>
          <splits>
            <_><var>0</var>
              <quality>4.4047348201274872e-02</quality>
              <le>4.7014248371124268e-01</le></_></splits></_>
        <_>
          <depth>1</depth>
          <value>-2.3031135354969576e-01</value></_>
        <_>
          <depth>1</depth>
          <value>1.9713558910894699e-01</value></_></nodes></_>
    <_>
      <nodes>
        <_>
          <depth>0</depth>
          <value>1.4492527157330269e-09</value>
          <splits>
            <_><var>0</var>
              <quality>5.5297080427408218e-02</quality>
              <le>3.1014949083328247e-01</le></_></splits></_>
        <_>
          <depth>1</depth>
          <value>4.3720156885458766e-01</value></_>
        <_>
          <depth>1</depth>
          <value>-1.3525621612423391e-01</value></_></nodes></_>
    <_>
      <nodes>
        <_>
          <depth>0</depth>
          <value>2.0028780815936546e-09</value>
          <splits>
            <_><var>3</var>
              <quality>2.5522489100694656e-02</quality>
              <le>3.5000000000000000e+00</le></_></splits></_>
        <_>
          <depth>1</depth>
          <value>6.9228587602360434e-02</value></_>
        <_>
          <depth>1</depth>
          <value>-3.8756433660865897e-01</value></_></nodes></_>
    <_>
      <nodes>
        <_>
          <depth>0</depth>
          <value>-2.4347275366258535e-09</value>
          <splits>
            <_><var>6</var>
              <quality>3.8304291665554047e-02</quality>
              <le>9.5000000000000000e+00</le></_></splits></_>
        <_>
          <depth>1</depth>
          <value>-4.1510909853264936e-02</value></_>
        <_>
          <depth>1</depth>
          <value>1.6108288398418420e+00</value></_></nodes></_>
    <_>
      <nodes>
        <_>
          <depth>0</depth>
          <value>-6.7896710522233737e-10</value>
          <splits>
            <_><var>0</var>
              <quality>3.8255188614130020e-02</quality>
              <le>5.6966501474380493e-01</le></_></splits></_>
        <_>
          <depth>1</depth>
          <value>-1.4789239630157433e-01</value></_>
        <_>
          <depth>1</depth>
          <value>2.6670075129350590e-01</value></_></nodes></_>
    <_>
      <nodes>
        <_>
          <depth>0</depth>
          <value>5.1524728662407737e-09</value>
          <splits>
            <_><var>4</var>
              <quality>3.3679027110338211e-02</quality>
              <le>1.3865050673484802e-01</le></_></splits></_>
        <_>
          <depth>1</depth>
          <value>5.9279776177999378e-02</value></_>
        <_>
          <depth>1</depth>
          <value>-6.4575045133083997e-01</value></_></nodes></_>
    <_>
      <nodes>
        <_>
          <depth>0</depth>
          <value>6.4442451371004527e-11</value>
          <splits>
            <_><var>1</var>
              <quality>2.3702692240476608e-02</quality>
              <le>1.6066899895668030e-01</le></_></splits></_>
        <_>
          <depth>1</depth>
          <value>-5.0686316246266412e-02</value></_>
        <_>
          <depth>1</depth>
          <value>5.0755159436046338e-01</value></_></nodes></_>
    <_>
      <nodes>
        <_>
          <depth>0</depth>
          <value>-2.8168943368401999e-09</value>
          <splits>
            <_><var>1</var>
              <quality>3.3304821699857712e-02</quality>
              <le>1.6640099883079529e-01</le></_></splits></_>
        <_>
          <depth>1</depth>
          <value>4.1119908360164742e-02</value></_>
        <_>
          <depth>1</depth>
          <value>-1.1281943777286205e+00</value></_></nodes></_>
    <_>
      <nodes>
        <_>
          <depth>0</depth>
          <value>-4.5923487237308868e-11</value>
          <splits>
            <_><var>1</var>
              <quality>2.3439733311533928e-02</quality>
              <le>1.6066899895668030e-01</le></_></splits></_>
        <_>
          <depth>1</depth>
          <value>-4.1119908595556337e-02</value></_>
        <_>
          <depth>1</depth>
          <value>6.4804877392057514e-01</value></_></nodes></_>
    <_>
      <nodes>
        <_>
          <depth>0</depth>
          <value>-5.9588828351645499e-10</value>
          <splits>
            <_><var>1</var>
              <quality>2.5048805400729179e-02</quality>
              <le>1.5022750198841095e-01</le></_></splits></_>
        <_>
          <depth>1</depth>
          <value>6.8646583855484750e-02</value></_>
        <_>
          <depth>1</depth>
          <value>-3.8318256655868138e-01</value></_></nodes></_>
    <_>
      <nodes>
        <_>
          <depth>0</depth>
          <value>-4.6996322610113209e-09</value>
          <splits>
            <_><var>5</var>
              <quality>2.8861099854111671e-02</quality>
              <le>1.1539249420166016e+00</le></_></splits></_>
        <_>
          <depth>1</depth>
          <value>3.9675012080297628e-01</value></_>
        <_>
          <depth>1</depth>
          <value>-7.6671075086555490e-02</value></_></nodes></_>
    <_>
      <nodes>
        <_>
          <depth>0</depth>
          <value>2.8868027884751213e-09</value>
          <splits>
            <_><var>5</var>
              <quality>3.6757137626409531e-02</quality>
              <le>1.2537180185317993e+00</le></_></splits></_>
        <_>
          <depth>1</depth>
          <value>-2.7864251303848536e-01</value></_>
        <_>
          <depth>1</depth>
          <value>1.3614654235287324e-01</value></_></nodes></_>
    <_>
      <nodes>
        <_>
          <depth>0</depth>
          <value>-4.5486805640275081e-09</value>
          <splits>
            <_><var>5</var>
              <quality>3.3322047442197800e-02</quality>
              <le>1.7056939601898193e+00</le></_></splits></_>
        <_>
          <depth>1</depth>
          <value>1.2652393414493701e-01</value></_>
        <_>
          <depth>1</depth>
          <value>-2.7123045343122876e-01</value></_></nodes></_>
    <_>
      <nodes>
        <_>
          <depth>0</depth>
          <value>6.8139928790279796e-09</value>
          <splits>
            <_><var>0</var>
              <quality>2.0750753581523895e-02</quality>
              <le>7.1346497535705566e-01</le></_></splits></_>
        <_>
          <depth>1</depth>
          <value>-5.5732244945231060e-02</value></_>
        <_>
          <depth>1</depth>
          <value>3.9157217674892136e-01</value></_></nodes></_>
    <_>
      <nodes>
        <_>
          <depth>0</depth>
          <value>1.2743877048495257e-09</value>
          <splits>
            <_><var>0</var>
              <quality>2.6577100157737732e-02</quality>
              <le>1.2600644826889038e+00</le></_></splits></_>
        <_>
          <depth>1</depth>
          <value>4.5721504835830373e-02</value></_>
        <_>
          <depth>1</depth>
          <value>-6.6500910519939971e-01</value></_></nodes></_>
    <_>
      <nodes>
        <_>
          <depth>0</depth>
          <value>-1.4341969854533396e-09</value>
          <splits>
            <_><var>4</var>
              <quality>1.9274268299341202e-02</quality>
              <le>2.4378900229930878e-01</le></_></splits></_>
        <_>
          <depth>1</depth>
          <value>2.0495540791975013e-02</value></_>
        <_>
          <depth>1</depth>
          <value>-1.7427468894777585e+00</value></_></nodes></_>
    <_>
      <nodes>
        <_>
          <depth>0</depth>
          <value>-1.0344980438547347e-09</value>
          <splits>
            <_><var>0</var>
              <quality>2.0871462300419807e-02</quality>
              <le>7.1346497535705566e-01</le></_></splits></_>
        <_>
          <depth>1</depth>
          <value>-5.0260380494710925e-02</value></_>
        <_>
          <depth>1</depth>
          <value>4.4238125653828220e-01</value></_></nodes></_>
    <_>
      <nodes>
        <_>
          <depth>0</depth>
          <value>-1.1449858296828509e-09</value>
          <splits>
            <_><var>0</var>
              <quality>2.8685484081506729e-02</quality>
              <le>6.1569249629974365e-01</le></_></splits></_>
        <_>
          <depth>1</depth>
          <value>8.0847393442969873e-02</value></_>
        <_>
          <depth>1</depth>
          <value>-3.7182038978701315e-01</value></_></nodes></_>
    <_>
      <nodes>
        <_>
          <depth>0</depth>
          <value>2.9189985898685135e-09</value>
          <splits>
            <_><var>4</var>
              <quality>2.4080924689769745e-02</quality>
              <le>6.8380003795027733e-03</le></_></splits></_>
        <_>
          <depth>1</depth>
          <value>-1.0191763829165570e-01</value></_>
        <_>
          <depth>1</depth>
          <value>2.4169466980827273e-01</value></_></nodes></_>
    <_>
      <nodes>
        <_>
          <depth>0</depth>
          <value>-4.4196735180073415e-10</value>
          <splits>
            <_><var>1</var>
              <quality>2.1896572783589363e-02</quality>
              <le>1.0765349864959717e-01</le></_></splits></_>
        <_>
          <depth>1</depth>
          <value>-2.3209758183069334e-01</value></_>
        <_>
          <depth>1</depth>
          <value>9.6326928327783043e-02</value></_></nodes></_>
    <_>
      <nodes>
        <_>
          <depth>0</depth>
          <value>2.2217430068515382e-09</value>
          <splits>
            <_><var>0</var>
              <quality>2.3415340110659599e-02</quality>
              <le>1.4434500038623810e-01</le></_></splits></_>
        <_>
          <depth>1</depth>
          <value>-4.5887469747164805e-01</value></_>
        <_>
          <depth>1</depth>
          <value>5.4614260717884812e-02</value></_></nodes></_>
    <_>
      <nodes>
        <_>
          <depth>0</depth>
          <value>4.4669934398141605e-10</value>
          <splits>
            <_><var>0</var>
              <quality>3.1940981745719910e-02</quality>
              <le>1.3680949807167053e-01</le></_></splits></_>
        <_>
          <depth>1</depth>
          <value>8.7552013797384076e-01</value></_>
        <_>
          <depth>1</depth>
          <value>-4.5391041232623081e-02</value></_></nodes></_>
    <_>
      <nodes>
        <_>
          <depth>0</depth>
          <value>1.7476526861780919e-09</value>
          <splits>
            <_><var>6</var>
              <quality>2.5304308161139488e-02</quality>
              <le>2.5000000000000000e+00</le></_></splits></_>
        <_>
          <depth>1</depth>
          <value>-2.1146923235641046e-01</value></_>
        <_>
          <depth>1</depth>
          <value>1.2204022237099384e-01</value></_></nodes></_>
    <_>
      <nodes>
        <_>
          <depth>0</depth>
          <value>2.0049561970428195e-09</value>
          <splits>
            <_><var>5</var>
              <quality>1.9465068355202675e-02</quality>
              <le>1.0299589633941650e+00</le></_></splits></_>
        <_>
          <depth>1</depth>
          <value>-5.7564577324601141e+00</value></_>
        <_>
          <depth>1</depth>
          <value>1.9467528919760214e-02</value></_></nodes></_>
    <_>
      <nodes>
        <_>
          <depth>0</depth>
          <value>-6.1562116861651613e-05</value>
          <splits>
            <_><var>5</var>
              <quality>4.0641807019710541e-02</quality>
              <le>1.0587360858917236e+00</le></_></splits></_>
        <_>
          <depth>1</depth>
          <value>1.0072065454363042e+00</value></_>
        <_>
          <depth>1</depth>
          <value>-5.3261635187348180e-02</value></_></nodes></_>
    <_>
      <nodes>
        <_>
          <depth>0</depth>
          <value>-1.7624986501352222e-09</value>
          <splits>
            <_><var>0</var>
              <quality>2.9668785631656647e-02</quality>
              <le>1.4434500038623810e-01</le></_></splits></_>
        <_>
          <depth>1</depth>
          <value>-7.1488937073140579e-01</value></_>
        <_>
          <depth>1</depth>
          <value>4.8379172877464710e-02</value></_></nodes></_>
    <_>
      <nodes>
        <_>
          <depth>0</depth>
          <value>-1.9325024917375752e-10</value>
          <splits>
            <_><var>0</var>
              <quality>2.9938071966171265e-02</quality>
              <le>1.3680949807167053e-01</le></_></splits></_>
        <_>
          <depth>1</depth>
          <value>2.9467944565053985e+00</value></_>
        <_>
          <depth>1</depth>
          <value>-3.0112709407344642e-02</value></_></nodes></_>
    <_>
      <nodes>
        <_>
          <depth>0</depth>
          <value>2.7256197291723516e-10</value>
          <splits>
            <_><var>0</var>
              <quality>2.7146816253662109e-02</quality>
              <le>1.4434500038623810e-01</le></_></splits></_>
        <_>
          <depth>1</depth>
          <value>-1.4816644050284153e+00</value></_>
        <_>
          <depth>1</depth>
          <value>3.0112711087858485e-02</value></_></nodes></_>
    <_>
      <nodes>
        <_>
          <depth>0</depth>
          <value>-4.1469044881880540e-10</value>
          <splits>
            <_><var>0</var>
              <quality>3.4793168306350708e-02</quality>
              <le>2.5227248668670654e-01</le></_></splits></_>
        <_>
          <depth>1</depth>
          <value>7.8655054542545522e-01</value></_>
        <_>
          <depth>1</depth>
          <value>-5.3051686761856967e-02</value></_></nodes></_>
    <_>
      <nodes>
        <_>
          <depth>0</depth>
          <value>2.3120825200895185e-09</value>
          <splits>
            <_><var>0</var>
              <quality>3.5822749137878418e-02</quality>
              <le>4.5546001195907593e-01</le></_></splits></_>
        <_>
          <depth>1</depth>
          <value>-2.7689774185296873e-01</value></_>
        <_>
          <depth>1</depth>
          <value>1.3344796140126575e-01</value></_></nodes></_>
    <_>
      <nodes>
        <_>
          <depth>0</depth>
          <value>-3.3966316541530503e-09</value>
          <splits>
            <_><var>6</var>
              <quality>3.7053119391202927e-02</quality>
              <le>6.5000000000000000e+00</le></_></splits></_>
        <_>
          <depth>1</depth>
          <value>-9.2026589610609583e-02</value></_>
        <_>
          <depth>1</depth>
          <value>4.2814623364971333e-01</value></_></nodes></_>
    <_>
      <nodes>
        <_>
          <depth>0</depth>
          <value>-2.3326712789041455e-10</value>
          <splits>
            <_><var>5</var>
              <quality>2.3965524509549141e-02</quality>
              <le>1.4292614459991455e+00</le></_></splits></_>
        <_>
          <depth>1</depth>
          <value>1.6109341132459462e-01</value></_>
        <_>
          <depth>1</depth>
          <value>-1.5119419598198508e-01</value></_></nodes></_>
    <_>
      <nodes>
        <_>
          <depth>0</depth>
          <value>8.1919693184000682e-10</value>
          <splits>
            <_><var>5</var>
              <quality>3.1412277370691299e-02</quality>
              <le>1.1954079866409302e+00</le></_></splits></_>
        <_>
          <depth>1</depth>
          <value>-3.8381835245189699e-01</value></_>
        <_>
          <depth>1</depth>
          <value>8.6033102246148532e-02</value></_></nodes></_>
    <_>
      <nodes>
        <_>
          <depth>0</depth>
          <value>-1.9269068600106756e-09</value>
          <splits>
            <_><var>0</var>
              <quality>2.9741676524281502e-02</quality>
              <le>3.1014949083328247e-01</le></_></splits></_>
        <_>
          <depth>1</depth>
          <value>4.1271527344596803e-01</value></_>
        <_>
          <depth>1</depth>
          <value>-7.6256789616542878e-02</value></_></nodes></_>
    <_>
      <nodes>
        <_>
          <depth>0</depth>
          <value>-2.2119447988877018e-09</value>
          <splits>
            <_><var>0</var>
              <quality>2.4069411680102348e-02</quality>
              <le>6.1218398809432983e-01</le></_></splits></_>
        <_>
          <depth>1</depth>
          <value>-9.3524784726709942e-02</value></_>
        <_>
          <depth>1</depth>
          <value>2.6408091326267602e-01</value></_></nodes></_>
    <_>
      <nodes>
        <_>
          <depth>0</depth>
          <value>-2.8907765078941488e-10</value>
          <splits>
            <_><var>1</var>
              <quality>2.3990856483578682e-02</quality>
              <le>1.0756349563598633e-01</le></_></splits></_>
        <_>
          <depth>1</depth>
          <value>-2.2679944551310371e-01</value></_>
        <_>
          <depth>1</depth>
          <value>1.0800558527659072e-01</value></_></nodes></_>
    <_>
      <nodes>
        <_>
          <depth>0</depth>
          <value>6.6098637630681890e-10</value>
          <splits>
            <_><var>1</var>
              <quality>3.2015606760978699e-02</quality>
              <le>1.1071699857711792e-01</le></_></splits></_>
        <_>
          <depth>1</depth>
          <value>2.0669434791393904e-01</value></_>
        <_>
          <depth>1</depth>
          <value>-1.5840477821381910e-01</value></_></nodes></_>
    <_>
      <nodes>
        <_>
          <depth>0</depth>
          <value>1.6306442836066914e-09</value>
          <splits>
            <_><var>1</var>
              <quality>2.1666454151272774e-02</quality>
              <le>1.4616599678993225e-01</le></_></splits></_>
        <_>
          <depth>1</depth>
          <value>-8.0322993571378676e-02</value></_>
        <_>
          <depth>1</depth>
          <value>2.7721060482034066e-01</value></_></nodes></_>
    <_>
      <nodes>
        <_>
          <depth>0</depth>
          <value>4.3001548803372909e-09</value>
          <splits>
            <_><var>4</var>
              <quality>1.6601642593741417e-02</quality>
              <le>6.1558999121189117e-02</le></_></splits></_>
        <_>
          <depth>1</depth>
          <value>-6.4425577766333259e-02</value></_>
        <_>
          <depth>1</depth>
          <value>2.6401124187615860e-01</value></_></nodes></_>
    <_>
      <nodes>
        <_>
          <depth>0</depth>
          <value>3.4860247900049482e-09</value>
          <splits>
            <_><var>2</var>
              <quality>1.8009275197982788e-02</quality>
              <le>1.5000000000000000e+00</le></_></splits></_>
        <_>
          <depth>1</depth>
          <value>9.2975714935385492e-02</value></_>
        <_>
          <depth>1</depth>
          <value>-1.9675684736923399e-01</value></_></nodes></_>
    <_>
      <nodes>
        <_>
          <depth>0</depth>
          <value>3.4333351599330513e-09</value>
          <splits>
            <_><var>2</var>
              <quality>1.8976809456944466e-02</quality>
              <le>2.5000000000000000e+00</le></_></splits></_>
        <_>
          <depth>1</depth>
          <value>-6.1674131458562577e-02</value></_>
        <_>
          <depth>1</depth>
          <value>3.1842798011743656e-01</value></_></nodes></_>
    <_>
      <nodes>
        <_>
          <depth>0</depth>
          <value>1.2743783789761426e-09</value>
          <splits>
            <_><var>1</var>
              <quality>1.8443584442138672e-02</quality>
              <le>1.0765349864959717e-01</le></_></splits></_>
        <_>
          <depth>1</depth>
          <value>-1.9685567358221992e-01</value></_>
        <_>
          <depth>1</depth>
          <value>9.5184448127827045e-02</value></_></nodes></_>
    <_>
      <nodes>
        <_>
          <depth>0</depth>
          <value>3.6645153443976309e-09</value>
          <splits>
            <_><var>1</var>
              <quality>1.9477739930152893e-02</quality>
              <le>1.3714300096035004e-01</le></_></splits></_>
        <_>
          <depth>1</depth>
          <value>8.9880300937674629e-02</value></_>
        <_>
          <depth>1</depth>
          <value>-2.2081088798106618e-01</value></_></nodes></_>
    <_>
      <nodes>
        <_>
          <depth>0</depth>
          <value>-5.0881077155249915e-10</value>
          <splits>
            <_><var>3</var>
              <quality>1.3762784190475941e-02</quality>
              <le>1.5000000000000000e+00</le></_></splits></_>
        <_>
          <depth>1</depth>
          <value>2.9671726160785339e-01</value></_>
        <_>
          <depth>1</depth>
          <value>-4.7773101779607585e-02</value></_></nodes></_>
    <_>
      <nodes>
        <_>
          <depth>0</depth>
          <value>-4.3373443744326552e-10</value>
          <splits>
            <_><var>0</var>
              <quality>1.5130110085010529e-02</quality>
              <le>1.4434500038623810e-01</le></_></splits></_>
        <_>
          <depth>1</depth>
          <value>-7.3138535278281758e-01</value></_>
        <_>
          <depth>1</depth>
          <value>2.4255140355526346e-02</value></_></nodes></_>
    <_>
      <nodes>
        <_>
          <depth>0</depth>
          <value>5.0918691459508246e-10</value>
          <splits>
            <_><var>0</var>
              <quality>1.8660470843315125e-02</quality>
              <le>3.1014949083328247e-01</le></_></splits></_>
        <_>
          <depth>1</depth>
          <value>3.2576749763670015e-01</value></_>
        <_>
          <depth>1</depth>
          <value>-5.9363326906030203e-02</value></_></nodes></_>
    <_>
      <nodes>
        <_>
          <depth>0</depth>
          <value>2.4326349764234290e-09</value>
          <splits>
            <_><var>0</var>
              <quality>1.7566043883562088e-02</quality>
              <le>3.7406700849533081e-01</le></_></splits></_>
        <_>
          <depth>1</depth>
          <value>-2.2628683644159400e-01</value></_>
        <_>
          <depth>1</depth>
          <value>7.9112460927920888e-02</value></_></nodes></_>
    <_>
      <nodes>
        <_>
          <depth>0</depth>
          <value>4.8236170590068794e-10</value>
          <splits>
            <_><var>1</var>
              <quality>2.3463267832994461e-02</quality>
              <le>1.6066899895668030e-01</le></_></splits></_>
        <_>
          <depth>1</depth>
          <value>-5.4327818896177910e-02</value></_>
        <_>
          <depth>1</depth>
          <value>4.6273162876620111e-01</value></_></nodes></_>
    <_>
      <nodes>
        <_>
          <depth>0</depth>
          <value>4.5316439469259559e-10</value>
          <splits>
            <_><var>1</var>
              <quality>2.8284464031457901e-02</quality>
              <le>1.6640099883079529e-01</le></_></splits></_>
        <_>
          <depth>1</depth>
          <value>4.3057466498773282e-02</value></_>
        <_>
          <depth>1</depth>
          <value>-7.8805580403614017e-01</value></_></nodes></_>
    <_>
      <nodes>
        <_>
          <depth>0</depth>
          <value>-2.4753976707528275e-09</value>
          <splits>
            <_><var>1</var>
              <quality>1.9586388021707535e-02</quality>
              <le>1.6066899895668030e-01</le></_></splits></_>
        <_>
          <depth>1</depth>
          <value>-4.3057467188242757e-02</value></_>
        <_>
          <depth>1</depth>
          <value>4.9120282639884788e-01</value></_></nodes></_>
    <_>
      <nodes>
        <_>
          <depth>0</depth>
          <value>1.7517853831123713e-10</value>
          <splits>
            <_><var>0</var>
              <quality>1.4851185493171215e-02</quality>
              <le>3.1014949083328247e-01</le></_></splits></_>
        <_>
          <depth>1</depth>
          <value>2.8061467326464712e-01</value></_>
        <_>
          <depth>1</depth>
          <value>-5.4359159351490993e-02</value></_></nodes></_>
    <_>
      <nodes>
        <_>
          <depth>0</depth>
          <value>7.1690853202473809e-10</value>
          <splits>
            <_><var>0</var>
              <quality>1.8379906192421913e-02</quality>
              <le>7.0710754394531250e-01</le></_></splits></_>
        <_>
          <depth>1</depth>
          <value>-5.5016321933910955e-02</value></_>
        <_>
          <depth>1</depth>
          <value>3.4779430707563352e-01</value></_></nodes></_>
    <_>
      <nodes>
        <_>
          <depth>0</depth>
          <value>2.0580603883529780e-10</value>
          <splits>
            <_><var>0</var>
              <quality>1.8753711134195328e-02</quality>
              <le>1.2600644826889038e+00</le></_></splits></_>
        <_>
          <depth>1</depth>
          <value>4.4201294415145462e-02</value></_>
        <_>
          <depth>1</depth>
          <value>-4.5323674775700479e-01</value></_></nodes></_>
    <_>
      <nodes>
        <_>
          <depth>0</depth>
          <value>-3.4269920246663756e-10</value>
          <splits>
            <_><var>0</var>
              <quality>1.6897480934858322e-02</quality>
              <le>4.0497201681137085e-01</le></_></splits></_>
        <_>
          <depth>1</depth>
          <value>-2.2132269200390273e-01</value></_>
        <_>
          <depth>1</depth>
          <value>7.7746524864050343e-02</value></_></nodes></_>
    <_>
      <nodes>
        <_>
          <depth>0</depth>
          <value>-2.0894117590899654e-09</value>
          <splits>
            <_><var>5</var>
              <quality>1.3135934248566628e-02</quality>
              <le>1.0587360858917236e+00</le></_></splits></_>
        <_>
          <depth>1</depth>
          <value>8.5055656821213776e-01</value></_>
        <_>
          <depth>1</depth>
          <value>-1.9002421293344351e-02</value></_></nodes></_>
    <_>
      <nodes>
        <_>
          <depth>0</depth>
          <value>-1.4881895717960650e-10</value>
          <splits>
            <_><var>6</var>
              <quality>1.9981145858764648e-02</quality>
              <le>2.5000000000000000e+00</le></_></splits></_>
        <_>
          <depth>1</depth>
          <value>-2.1025223643568333e-01</value></_>
        <_>
          <depth>1</depth>
          <value>9.6730991093949725e-02</value></_></nodes></_>
    <_>
      <nodes>
        <_>
          <depth>0</depth>
          <value>4.5534376248795481e-10</value>
          <splits>
            <_><var>1</var>
              <quality>1.2544183060526848e-02</quality>
              <le>7.3628000915050507e-02</le></_></splits></_>
        <_>
          <depth>1</depth>
          <value>-8.1863200246535872e-01</value></_>
        <_>
          <depth>1</depth>
          <value>1.8604734895087020e-02</value></_></nodes></_>
    <_>
      <nodes>
        <_>
          <depth>0</depth>
          <value>6.6383565307005206e-11</value>
          <splits>
            <_><var>4</var>
              <quality>1.5894122421741486e-02</quality>
              <le>6.8380003795027733e-03</le></_></splits></_>
        <_>
          <depth>1</depth>
          <value>-8.3940105355508429e-02</value></_>
        <_>
          <depth>1</depth>
          <value>1.9212477256304233e-01</value></_></nodes></_>
    <_>
      <nodes>
        <_>
          <depth>0</depth>
          <value>-1.3678519430110628e-10</value>
          <splits>
            <_><var>2</var>
              <quality>1.8841288983821869e-02</quality>
              <le>1.5000000000000000e+00</le></_></splits></_>
        <_>
          <depth>1</depth>
          <value>9.6514928013541196e-02</value></_>
        <_>
          <depth>1</depth>
          <value>-1.9838433011941506e-01</value></_></nodes></_>
    <_>
      <nodes>
        <_>
          <depth>0</depth>
          <value>1.6431183053813330e-09</value>
          <splits>
            <_><var>1</var>
              <quality>1.5128402970731258e-02</quality>
              <le>8.1777498126029968e-02</le></_></splits></_>
        <_>
          <depth>1</depth>
          <value>5.7650625165777492e-01</value></_>
        <_>
          <depth>1</depth>
          <value>-2.9094493224957177e-02</value></_></nodes></_>
    <_>
      <nodes>
        <_>
          <depth>0</depth>
          <value>-4.4508746708075715e-10</value>
          <splits>
            <_><var>5</var>
              <quality>1.2937816791236401e-02</quality>
              <le>1.6918499469757080e+00</le></_></splits></_>
        <_>
          <depth>1</depth>
          <value>8.5767836508634829e-02</value></_>
        <_>
          <depth>1</depth>
          <value>-1.5238533089266532e-01</value></_></nodes></_>
    <_>
      <nodes>
        <_>
          <depth>0</depth>
          <value>-1.6681970832561585e-09</value>
          <splits>
            <_><var>5</var>
              <quality>2.6448005810379982e-02</quality>
              <le>2.0960235595703125e+00</le></_></splits></_>
        <_>
          <depth>1</depth>
          <value>-8.0011259966572018e-02</value></_>
        <_>
          <depth>1</depth>
          <value>3.4424136076781681e-01</value></_></nodes></_>
    <_>
      <nodes>
        <_>
          <depth>0</depth>
          <value>4.7037586937373588e-09</value>
          <splits>
            <_><var>5</var>
              <quality>1.6887122765183449e-02</quality>
              <le>2.1412830352783203e+00</le></_></splits></_>
        <_>
          <depth>1</depth>
          <value>4.9183328168140410e-02</value></_>
        <_>
          <depth>1</depth>
          <value>-3.5819978919271644e-01</value></_></nodes></_>
    <_>
      <nodes>
        <_>
          <depth>0</depth>
          <value>-1.2477686122140450e-09</value>
          <splits>
            <_><var>5</var>
              <quality>1.5159571543335915e-02</quality>
              <le>2.2853684425354004e+00</le></_></splits></_>
        <_>
          <depth>1</depth>
          <value>-3.5808787159144630e-02</value></_>
        <_>
          <depth>1</depth>
          <value>4.5198433232953811e-01</value></_></nodes></_>
    <_>
      <nodes>
        <_>
          <depth>0</depth>
          <value>-1.3467266764362175e-09</value>
          <splits>
            <_><var>3</var>
              <quality>1.2619107961654663e-02</quality>
              <le>2.5000000000000000e+00</le></_></splits></_>
        <_>
          <depth>1</depth>
          <value>-6.9576731389933144e-02</value></_>
        <_>
          <depth>1</depth>
          <value>1.8370111443098730e-01</value></_></nodes></_>
    <_>
      <nodes>
        <_>
          <depth>0</depth>
          <value>1.4627596890112841e-09</value>
          <splits>
            <_><var>3</var>
              <quality>2.2665319964289665e-02</quality>
              <le>3.5000000000000000e+00</le></_></splits></_>
        <_>
          <depth>1</depth>
          <value>6.0087620124880108e-02</value></_>
        <_>
          <depth>1</depth>
          <value>-3.9732563904432439e-01</value></_></nodes></_>
    <_>
      <nodes>
        <_>
          <depth>0</depth>
          <value>-1.4726530572255455e-09</value>
          <splits>
            <_><var>6</var>
              <quality>1.8046557903289795e-02</quality>
              <le>9.5000000000000000e+00</le></_></splits></_>
        <_>
          <depth>1</depth>
          <value>-2.2355819436319556e-02</value></_>
        <_>
          <depth>1</depth>
          <value>1.1194473150923585e+00</value></_></nodes></_>
    <_>
      <nodes>
        <_>
          <depth>0</depth>
          <value>-8.7950913296357353e-10</value>
          <splits>
            <_><var>1</var>
              <quality>1.6177328303456306e-02</quality>
              <le>7.5442999601364136e-02</le></_></splits></_>
        <_>
          <depth>1</depth>
          <value>-7.6074843643667589e-01</value></_>
        <_>
          <depth>1</depth>
          <value>2.5222624878771374e-02</value></_></nodes></_>
    <_>
      <nodes>
        <_>
          <depth>0</depth>
          <value>-4.0434727804601864e-10</value>
          <splits>
            <_><var>0</var>
              <quality>1.4353333972394466e-02</quality>
              <le>7.1346497535705566e-01</le></_></splits></_>
        <_>
          <depth>1</depth>
          <value>-4.6475784404927944e-02</value></_>
        <_>
          <depth>1</depth>
          <value>3.1950249448504398e-01</value></_></nodes></_>
    <_>
      <nodes>
        <_>
          <depth>0</depth>
          <value>-2.2631100933403346e-09</value>
          <splits>
            <_><var>0</var>
              <quality>1.6480509191751480e-02</quality>
              <le>6.1569249629974365e-01</le></_></splits></_>
        <_>
          <depth>1</depth>
          <value>6.4894547110267806e-02</value></_>
        <_>
          <depth>1</depth>
          <value>-2.6002049154251616e-01</value></_></nodes></_>
    <_>
      <nodes>
        <_>
          <depth>0</depth>
          <value>-1.3774341686245232e-09</value>
          <splits>
            <_><var>0</var>
              <quality>1.5784367918968201e-02</quality>
              <le>5.6966501474380493e-01</le></_></splits></_>
        <_>
          <depth>1</depth>
          <value>-1.0411556054046105e-01</value></_>
        <_>
          <depth>1</depth>
          <value>1.5334241412092356e-01</value></_></nodes></_>
    <_>
      <nodes>
        <_>
          <depth>0</depth>
          <value>1.3577821071247362e-09</value>
          <splits>
            <_><var>0</var>
              <quality>1.3845564797520638e-02</quality>
              <le>5.0078350305557251e-01</le></_></splits></_>
        <_>
          <depth>1</depth>
          <value>1.2821529865777767e-01</value></_>
        <_>
          <depth>1</depth>
          <value>-1.0900765383377503e-01</value></_></nodes></_>
    <_>
      <nodes>
        <_>
          <depth>0</depth>
          <value>1.7578365399026742e-09</value>
          <splits>
            <_><var>4</var>
              <quality>1.2885662727057934e-02</quality>
              <le>6.8380003795027733e-03</le></_></splits></_>
        <_>
          <depth>1</depth>
          <value>-7.4683284501283101e-02</value></_>
        <_>
          <depth>1</depth>
          <value>1.7461130493018623e-01</value></_></nodes></_>
    <_>
      <nodes>
        <_>
          <depth>0</depth>
          <value>2.6300859199073247e-09</value>
          <splits>
            <_><var>5</var>
              <quality>1.6395879909396172e-02</quality>
              <le>1.2145135402679443e+00</le></_></splits></_>
        <_>
          <depth>1</depth>
          <value>-2.5519785312918059e-01</value></_>
        <_>
          <depth>1</depth>
          <value>6.5730935773024510e-02</value></_></nodes></_></trees></opencv_ml_boost>
</opencv_storage>
